<?xml version="1.0"?>
<opencv_storage>
<output type_id="opencv-haar-classifier">
  <size>
    24 24</size>
  <stages>
    <_>
      <trees>
        <_>
          <_>
            <feature>
              <rects>
                <_>
                  10 10 14 6 -1.</_>
                <_>
                  17 10 7 6 2.</_></rects>
              <tilted>0</tilted></feature>
            <threshold>-9.0172635391354561e-003</threshold>
            <left_val>0.4097726941108704</left_val>
            <right_val>-0.7141439914703369</right_val></_></_>
        <_>
          <_>
            <feature>
              <rects>
                <_>
                  7 18 8 4 -1.</_>
                <_>
                  7 18 4 2 2.</_>
                <_>
                  11 20 4 2 2.</_></rects>
              <tilted>0</tilted></feature>
            <threshold>-0.0102071296423674</threshold>
            <left_val>0.6430770158767700</left_val>
            <right_val>-0.2402514964342117</right_val></_></_>
        <_>
          <_>
            <feature>
              <rects>
                <_>
                  7 17 3 4 -1.</_>
                <_>
                  7 18 3 2 2.</_></rects>
              <tilted>0</tilted></feature>
            <threshold>2.7124150656163692e-003</threshold>
            <left_val>-0.2158042043447495</left_val>
            <right_val>0.5521425008773804</right_val></_></_>
        <_>
          <_>
            <feature>
              <rects>
                <_>
                  15 1 5 3 -1.</_>
                <_>
                  14 2 5 1 3.</_></rects>
              <tilted>1</tilted></feature>
            <threshold>-0.0121862804517150</threshold>
            <left_val>0.7311676740646362</left_val>
            <right_val>-0.1418204009532929</right_val></_></_>
        <_>
          <_>
            <feature>
              <rects>
                <_>
                  15 1 6 3 -1.</_>
                <_>
                  14 2 6 1 3.</_></rects>
              <tilted>1</tilted></feature>
            <threshold>8.4489621222019196e-003</threshold>
            <left_val>-0.1991586983203888</left_val>
            <right_val>0.6485943198204041</right_val></_></_>
        <_>
          <_>
            <feature>
              <rects>
                <_>
                  13 2 8 4 -1.</_>
                <_>
                  12 3 8 2 2.</_></rects>
              <tilted>1</tilted></feature>
            <threshold>0.0126581303775311</threshold>
            <left_val>-0.1458127051591873</left_val>
            <right_val>0.5851827859878540</right_val></_></_>
        <_>
          <_>
            <feature>
              <rects>
                <_>
                  0 3 24 21 -1.</_>
                <_>
                  8 10 8 7 9.</_></rects>
              <tilted>0</tilted></feature>
            <threshold>0.8342180252075195</threshold>
            <left_val>-0.1332263052463532</left_val>
            <right_val>0.6923627257347107</right_val></_></_>
        <_>
          <_>
            <feature>
              <rects>
                <_>
                  0 7 8 12 -1.</_>
                <_>
                  4 7 4 12 2.</_></rects>
              <tilted>0</tilted></feature>
            <threshold>-0.0424975305795670</threshold>
            <left_val>0.5075185894966126</left_val>
            <right_val>-0.1721256971359253</right_val></_></_>
        <_>
          <_>
            <feature>
              <rects>
                <_>
                  15 12 1 4 -1.</_>
                <_>
                  15 12 1 2 2.</_></rects>
              <tilted>1</tilted></feature>
            <threshold>1.4426710549741983e-004</threshold>
            <left_val>0.2590183913707733</left_val>
            <right_val>-0.3292739987373352</right_val></_></_>
        <_>
          <_>
            <feature>
              <rects>
                <_>
                  18 14 6 1 -1.</_>
                <_>
                  21 14 3 1 2.</_></rects>
              <tilted>0</tilted></feature>
            <threshold>-4.6080011088633910e-005</threshold>
            <left_val>0.1921712011098862</left_val>
            <right_val>-0.4276033043861389</right_val></_></_>
        <_>
          <_>
            <feature>
              <rects>
                <_>
                  4 13 3 4 -1.</_>
                <_>
                  4 14 3 2 2.</_></rects>
              <tilted>0</tilted></feature>
            <threshold>4.5781549997627735e-003</threshold>
            <left_val>-0.1439073979854584</left_val>
            <right_val>0.5365558862686157</right_val></_></_></trees>
      <stage_threshold>-1.3600250482559204</stage_threshold>
      <parent>-1</parent>
      <next>-1</next></_>
    <_>
      <trees>
        <_>
          <_>
            <feature>
              <rects>
                <_>
                  12 4 12 8 -1.</_>
                <_>
                  15 7 6 8 2.</_></rects>
              <tilted>1</tilted></feature>
            <threshold>0.1210386008024216</threshold>
            <left_val>-0.2331137955188751</left_val>
            <right_val>0.6409381031990051</right_val></_></_>
        <_>
          <_>
            <feature>
              <rects>
                <_>
                  20 12 4 2 -1.</_>
                <_>
                  20 12 4 1 2.</_></rects>
              <tilted>1</tilted></feature>
            <threshold>-4.1669010533951223e-004</threshold>
            <left_val>0.2505015134811401</left_val>
            <right_val>-0.4461604952812195</right_val></_></_>
        <_>
          <_>
            <feature>
              <rects>
                <_>
                  17 2 5 3 -1.</_>
                <_>
                  16 3 5 1 3.</_></rects>
              <tilted>1</tilted></feature>
            <threshold>-0.0134310703724623</threshold>
            <left_val>0.7479156851768494</left_val>
            <right_val>-0.1459383070468903</right_val></_></_>
        <_>
          <_>
            <feature>
              <rects>
                <_>
                  14 1 5 3 -1.</_>
                <_>
                  13 2 5 1 3.</_></rects>
              <tilted>1</tilted></feature>
            <threshold>-0.0143184103071690</threshold>
            <left_val>0.7491952180862427</left_val>
            <right_val>-0.1115998029708862</right_val></_></_>
        <_>
          <_>
            <feature>
              <rects>
                <_>
                  15 0 6 4 -1.</_>
                <_>
                  14 1 6 2 2.</_></rects>
              <tilted>1</tilted></feature>
            <threshold>0.0176001898944378</threshold>
            <left_val>-0.1283562928438187</left_val>
            <right_val>0.7001361846923828</right_val></_></_>
        <_>
          <_>
            <feature>
              <rects>
                <_>
                  12 10 6 2 -1.</_>
                <_>
                  12 10 3 2 2.</_></rects>
              <tilted>1</tilted></feature>
            <threshold>-8.8443998247385025e-003</threshold>
            <left_val>-0.7285066843032837</left_val>
            <right_val>0.1563639938831329</right_val></_></_>
        <_>
          <_>
            <feature>
              <rects>
                <_>
                  3 11 7 4 -1.</_>
                <_>
                  3 12 7 2 2.</_></rects>
              <tilted>0</tilted></feature>
            <threshold>-6.5342811867594719e-003</threshold>
            <left_val>0.5635865926742554</left_val>
            <right_val>-0.1722663938999176</right_val></_></_>
        <_>
          <_>
            <feature>
              <rects>
                <_>
                  3 13 4 4 -1.</_>
                <_>
                  3 14 4 2 2.</_></rects>
              <tilted>0</tilted></feature>
            <threshold>-4.5360238291323185e-003</threshold>
            <left_val>0.6397637724876404</left_val>
            <right_val>-0.2235990017652512</right_val></_></_>
        <_>
          <_>
            <feature>
              <rects>
                <_>
                  3 15 3 4 -1.</_>
                <_>
                  3 16 3 2 2.</_></rects>
              <tilted>0</tilted></feature>
            <threshold>-2.5923980865627527e-003</threshold>
            <left_val>0.4698688089847565</left_val>
            <right_val>-0.1750026047229767</right_val></_></_>
        <_>
          <_>
            <feature>
              <rects>
                <_>
                  12 0 5 3 -1.</_>
                <_>
                  11 1 5 1 3.</_></rects>
              <tilted>1</tilted></feature>
            <threshold>0.0122663797810674</threshold>
            <left_val>-0.1280951946973801</left_val>
            <right_val>0.6473029255867004</right_val></_></_>
        <_>
          <_>
            <feature>
              <rects>
                <_>
                  16 13 3 3 -1.</_>
                <_>
                  17 14 1 1 9.</_></rects>
              <tilted>0</tilted></feature>
            <threshold>4.6307411976158619e-003</threshold>
            <left_val>0.1162362992763519</left_val>
            <right_val>-0.8346443176269531</right_val></_></_>
        <_>
          <_>
            <feature>
              <rects>
                <_>
                  9 16 3 4 -1.</_>
                <_>
                  10 17 1 4 3.</_></rects>
              <tilted>1</tilted></feature>
            <threshold>9.4357803463935852e-003</threshold>
            <left_val>-0.1426528990268707</left_val>
            <right_val>0.6039388775825501</right_val></_></_>
        <_>
          <_>
            <feature>
              <rects>
                <_>
                  10 17 3 4 -1.</_>
                <_>
                  11 18 1 4 3.</_></rects>
              <tilted>1</tilted></feature>
            <threshold>9.2899864539504051e-003</threshold>
            <left_val>-0.1328015029430389</left_val>
            <right_val>0.5953704714775085</right_val></_></_>
        <_>
          <_>
            <feature>
              <rects>
                <_>
                  9 17 3 3 -1.</_>
                <_>
                  10 18 1 3 3.</_></rects>
              <tilted>1</tilted></feature>
            <threshold>-4.8489300534129143e-003</threshold>
            <left_val>0.5255504846572876</left_val>
            <right_val>-0.1966482996940613</right_val></_></_>
        <_>
          <_>
            <feature>
              <rects>
                <_>
                  17 12 3 1 -1.</_>
                <_>
                  18 13 1 1 3.</_></rects>
              <tilted>1</tilted></feature>
            <threshold>-1.0442199418321252e-003</threshold>
            <left_val>-0.5535802841186523</left_val>
            <right_val>0.1939779967069626</right_val></_></_>
        <_>
          <_>
            <feature>
              <rects>
                <_>
                  13 13 3 3 -1.</_>
                <_>
                  14 14 1 1 9.</_></rects>
              <tilted>0</tilted></feature>
            <threshold>-3.6995799746364355e-003</threshold>
            <left_val>-0.7091556787490845</left_val>
            <right_val>0.0830300673842430</right_val></_></_></trees>
      <stage_threshold>-1.0994369983673096</stage_threshold>
      <parent>0</parent>
      <next>-1</next></_>
    <_>
      <trees>
        <_>
          <_>
            <feature>
              <rects>
                <_>
                  11 16 4 8 -1.</_>
                <_>
                  11 20 4 4 2.</_></rects>
              <tilted>0</tilted></feature>
            <threshold>-0.0306342206895351</threshold>
            <left_val>0.6054406762123108</left_val>
            <right_val>-0.2337432950735092</right_val></_></_>
        <_>
          <_>
            <feature>
              <rects>
                <_>
                  20 5 4 18 -1.</_>
                <_>
                  20 11 4 6 3.</_></rects>
              <tilted>0</tilted></feature>
            <threshold>-0.0731052979826927</threshold>
            <left_val>0.5568696260452271</left_val>
            <right_val>-0.1569125056266785</right_val></_></_>
        <_>
          <_>
            <feature>
              <rects>
                <_>
                  18 3 6 4 -1.</_>
                <_>
                  18 3 6 2 2.</_></rects>
              <tilted>1</tilted></feature>
            <threshold>-0.0314346700906754</threshold>
            <left_val>0.5741853117942810</left_val>
            <right_val>-0.1809365004301071</right_val></_></_>
        <_>
          <_>
            <feature>
              <rects>
                <_>
                  5 8 4 4 -1.</_>
                <_>
                  5 9 4 2 2.</_></rects>
              <tilted>0</tilted></feature>
            <threshold>5.3179888054728508e-003</threshold>
            <left_val>-0.1389691978693008</left_val>
            <right_val>0.5598499178886414</right_val></_></_>
        <_>
          <_>
            <feature>
              <rects>
                <_>
                  4 8 5 4 -1.</_>
                <_>
                  4 9 5 2 2.</_></rects>
              <tilted>0</tilted></feature>
            <threshold>-4.3455380946397781e-003</threshold>
            <left_val>0.4744268953800201</left_val>
            <right_val>-0.1808179020881653</right_val></_></_>
        <_>
          <_>
            <feature>
              <rects>
                <_>
                  15 2 5 3 -1.</_>
                <_>
                  14 3 5 1 3.</_></rects>
              <tilted>1</tilted></feature>
            <threshold>-9.9672842770814896e-003</threshold>
            <left_val>0.5777426958084106</left_val>
            <right_val>-0.1407229006290436</right_val></_></_>
        <_>
          <_>
            <feature>
              <rects>
                <_>
                  13 0 5 3 -1.</_>
                <_>
                  12 1 5 1 3.</_></rects>
              <tilted>1</tilted></feature>
            <threshold>9.2389136552810669e-003</threshold>
            <left_val>-0.1411737054586411</left_val>
            <right_val>0.5375903248786926</right_val></_></_>
        <_>
          <_>
            <feature>
              <rects>
                <_>
                  11 17 3 4 -1.</_>
                <_>
                  12 18 1 4 3.</_></rects>
              <tilted>1</tilted></feature>
            <threshold>-8.9790262281894684e-003</threshold>
            <left_val>0.6051539778709412</left_val>
            <right_val>-0.1302396059036255</right_val></_></_>
        <_>
          <_>
            <feature>
              <rects>
                <_>
                  17 6 7 8 -1.</_>
                <_>
                  17 6 7 4 2.</_></rects>
              <tilted>1</tilted></feature>
            <threshold>0.0183142796158791</threshold>
            <left_val>0.1348484009504318</left_val>
            <right_val>-0.6275889277458191</right_val></_></_>
        <_>
          <_>
            <feature>
              <rects>
                <_>
                  7 10 8 8 -1.</_>
                <_>
                  7 14 8 4 2.</_></rects>
              <tilted>0</tilted></feature>
            <threshold>0.0234326198697090</threshold>
            <left_val>0.1422172039747238</left_val>
            <right_val>-0.7333313822746277</right_val></_></_>
        <_>
          <_>
            <feature>
              <rects>
                <_>
                  8 17 3 3 -1.</_>
                <_>
                  9 18 1 3 3.</_></rects>
              <tilted>1</tilted></feature>
            <threshold>-7.5775398872792721e-003</threshold>
            <left_val>0.5300213098526001</left_val>
            <right_val>-0.1517208963632584</right_val></_></_>
        <_>
          <_>
            <feature>
              <rects>
                <_>
                  15 12 2 2 -1.</_>
                <_>
                  15 12 1 2 2.</_></rects>
              <tilted>1</tilted></feature>
            <threshold>1.1554070515558124e-003</threshold>
            <left_val>0.1765275001525879</left_val>
            <right_val>-0.4643400907516480</right_val></_></_>
        <_>
          <_>
            <feature>
              <rects>
                <_>
                  2 10 7 4 -1.</_>
                <_>
                  2 11 7 2 2.</_></rects>
              <tilted>0</tilted></feature>
            <threshold>-6.3692261464893818e-003</threshold>
            <left_val>0.4152581095695496</left_val>
            <right_val>-0.1606027930974960</right_val></_></_>
        <_>
          <_>
            <feature>
              <rects>
                <_>
                  3 12 5 4 -1.</_>
                <_>
                  3 13 5 2 2.</_></rects>
              <tilted>0</tilted></feature>
            <threshold>-4.5738029293715954e-003</threshold>
            <left_val>0.4340161085128784</left_val>
            <right_val>-0.1819283962249756</right_val></_></_>
        <_>
          <_>
            <feature>
              <rects>
                <_>
                  12 12 3 3 -1.</_>
                <_>
                  12 13 3 1 3.</_></rects>
              <tilted>0</tilted></feature>
            <threshold>-2.7271299622952938e-003</threshold>
            <left_val>-0.8021062016487122</left_val>
            <right_val>0.1177624017000198</right_val></_></_>
        <_>
          <_>
            <feature>
              <rects>
                <_>
                  3 14 4 3 -1.</_>
                <_>
                  3 15 4 1 3.</_></rects>
              <tilted>0</tilted></feature>
            <threshold>-4.9417507834732533e-003</threshold>
            <left_val>0.4812937974929810</left_val>
            <right_val>-0.1623190939426422</right_val></_></_>
        <_>
          <_>
            <feature>
              <rects>
                <_>
                  11 14 10 3 -1.</_>
                <_>
                  11 15 10 1 3.</_></rects>
              <tilted>0</tilted></feature>
            <threshold>-8.3645619451999664e-003</threshold>
            <left_val>-0.9086833000183106</left_val>
            <right_val>0.0801871716976166</right_val></_></_>
        <_>
          <_>
            <feature>
              <rects>
                <_>
                  4 15 8 2 -1.</_>
                <_>
                  4 15 4 1 2.</_>
                <_>
                  8 16 4 1 2.</_></rects>
              <tilted>0</tilted></feature>
            <threshold>3.0699539929628372e-003</threshold>
            <left_val>-0.1618991047143936</left_val>
            <right_val>0.4406324028968811</right_val></_></_>
        <_>
          <_>
            <feature>
              <rects>
                <_>
                  18 5 6 3 -1.</_>
                <_>
                  18 5 3 3 2.</_></rects>
              <tilted>1</tilted></feature>
            <threshold>5.7536042295396328e-003</threshold>
            <left_val>-0.3220123052597046</left_val>
            <right_val>0.1909766048192978</right_val></_></_>
        <_>
          <_>
            <feature>
              <rects>
                <_>
                  11 0 6 6 -1.</_>
                <_>
                  9 2 6 2 3.</_></rects>
              <tilted>1</tilted></feature>
            <threshold>0.0326394103467464</threshold>
            <left_val>-0.1409883052110672</left_val>
            <right_val>0.4899846911430359</right_val></_></_>
        <_>
          <_>
            <feature>
              <rects>
                <_>
                  12 13 1 3 -1.</_>
                <_>
                  12 14 1 1 3.</_></rects>
              <tilted>0</tilted></feature>
            <threshold>-1.1125480523332953e-003</threshold>
            <left_val>-0.8271259069442749</left_val>
            <right_val>0.0974906310439110</right_val></_></_>
        <_>
          <_>
            <feature>
              <rects>
                <_>
                  4 17 4 4 -1.</_>
                <_>
                  4 18 4 2 2.</_></rects>
              <tilted>0</tilted></feature>
            <threshold>-3.9221257902681828e-003</threshold>
            <left_val>0.3848338127136231</left_val>
            <right_val>-0.1728014945983887</right_val></_></_></trees>
      <stage_threshold>-1.2949719429016113</stage_threshold>
      <parent>1</parent>
      <next>-1</next></_>
    <_>
      <trees>
        <_>
          <_>
            <feature>
              <rects>
                <_>
                  12 4 12 8 -1.</_>
                <_>
                  15 7 6 8 2.</_></rects>
              <tilted>1</tilted></feature>
            <threshold>0.1340228021144867</threshold>
            <left_val>-0.2118622958660126</left_val>
            <right_val>0.6568675041198731</right_val></_></_>
        <_>
          <_>
            <feature>
              <rects>
                <_>
                  12 14 2 4 -1.</_>
                <_>
                  12 16 2 2 2.</_></rects>
              <tilted>0</tilted></feature>
            <threshold>8.2113183452747762e-005</threshold>
            <left_val>-0.3907405138015747</left_val>
            <right_val>0.3390085101127625</right_val></_></_>
        <_>
          <_>
            <feature>
              <rects>
                <_>
                  1 11 8 4 -1.</_>
                <_>
                  1 12 8 2 2.</_></rects>
              <tilted>0</tilted></feature>
            <threshold>0.0121386200189590</threshold>
            <left_val>-0.1343123018741608</left_val>
            <right_val>0.6355829238891602</right_val></_></_>
        <_>
          <_>
            <feature>
              <rects>
                <_>
                  3 12 8 3 -1.</_>
                <_>
                  3 13 8 1 3.</_></rects>
              <tilted>0</tilted></feature>
            <threshold>-5.2243717946112156e-003</threshold>
            <left_val>0.5307983756065369</left_val>
            <right_val>-0.2197089046239853</right_val></_></_>
        <_>
          <_>
            <feature>
              <rects>
                <_>
                  2 11 8 3 -1.</_>
                <_>
                  2 12 8 1 3.</_></rects>
              <tilted>0</tilted></feature>
            <threshold>-8.3499420434236526e-003</threshold>
            <left_val>0.6180045008659363</left_val>
            <right_val>-0.1536567062139511</right_val></_></_>
        <_>
          <_>
            <feature>
              <rects>
                <_>
                  19 14 4 1 -1.</_>
                <_>
                  21 14 2 1 2.</_></rects>
              <tilted>0</tilted></feature>
            <threshold>-2.7403850253904238e-005</threshold>
            <left_val>0.2075745016336441</left_val>
            <right_val>-0.4535005986690521</right_val></_></_>
        <_>
          <_>
            <feature>
              <rects>
                <_>
                  17 3 5 20 -1.</_>
                <_>
                  17 8 5 10 2.</_></rects>
              <tilted>0</tilted></feature>
            <threshold>-0.0806687772274017</threshold>
            <left_val>0.6292365789413452</left_val>
            <right_val>-0.1230371966958046</right_val></_></_>
        <_>
          <_>
            <feature>
              <rects>
                <_>
                  10 14 8 10 -1.</_>
                <_>
                  10 19 8 5 2.</_></rects>
              <tilted>0</tilted></feature>
            <threshold>-0.0620467513799667</threshold>
            <left_val>0.4774552881717682</left_val>
            <right_val>-0.1924564987421036</right_val></_></_>
        <_>
          <_>
            <feature>
              <rects>
                <_>
                  7 11 8 6 -1.</_>
                <_>
                  7 14 8 3 2.</_></rects>
              <tilted>0</tilted></feature>
            <threshold>0.0202918294817209</threshold>
            <left_val>0.0918902233242989</left_val>
            <right_val>-0.8701968789100647</right_val></_></_>
        <_>
          <_>
            <feature>
              <rects>
                <_>
                  3 10 7 3 -1.</_>
                <_>
                  3 11 7 1 3.</_></rects>
              <tilted>0</tilted></feature>
            <threshold>-4.1084508411586285e-003</threshold>
            <left_val>0.4546574056148529</left_val>
            <right_val>-0.1620336025953293</right_val></_></_>
        <_>
          <_>
            <feature>
              <rects>
                <_>
                  4 6 4 6 -1.</_>
                <_>
                  4 8 4 2 3.</_></rects>
              <tilted>0</tilted></feature>
            <threshold>-0.0139713799580932</threshold>
            <left_val>0.5089709758758545</left_val>
            <right_val>-0.1517031937837601</right_val></_></_>
        <_>
          <_>
            <feature>
              <rects>
                <_>
                  15 13 3 4 -1.</_>
                <_>
                  16 13 1 4 3.</_></rects>
              <tilted>0</tilted></feature>
            <threshold>-2.0164570305496454e-003</threshold>
            <left_val>-0.6521906256675720</left_val>
            <right_val>0.1209402978420258</right_val></_></_>
        <_>
          <_>
            <feature>
              <rects>
                <_>
                  15 14 3 4 -1.</_>
                <_>
                  16 14 1 4 3.</_></rects>
              <tilted>0</tilted></feature>
            <threshold>2.6073190383613110e-003</threshold>
            <left_val>0.1056661009788513</left_val>
            <right_val>-0.6947736144065857</right_val></_></_>
        <_>
          <_>
            <feature>
              <rects>
                <_>
                  11 1 6 3 -1.</_>
                <_>
                  10 2 6 1 3.</_></rects>
              <tilted>1</tilted></feature>
            <threshold>8.5515808314085007e-003</threshold>
            <left_val>-0.1624581962823868</left_val>
            <right_val>0.4139114916324616</right_val></_></_>
        <_>
          <_>
            <feature>
              <rects>
                <_>
                  13 0 5 3 -1.</_>
                <_>
                  12 1 5 1 3.</_></rects>
              <tilted>1</tilted></feature>
            <threshold>0.0157424602657557</threshold>
            <left_val>-0.0973369777202606</left_val>
            <right_val>0.6746631860733032</right_val></_></_>
        <_>
          <_>
            <feature>
              <rects>
                <_>
                  16 1 7 3 -1.</_>
                <_>
                  15 2 7 1 3.</_></rects>
              <tilted>1</tilted></feature>
            <threshold>0.0162936300039291</threshold>
            <left_val>-0.1034521013498306</left_val>
            <right_val>0.5922322869300842</right_val></_></_>
        <_>
          <_>
            <feature>
              <rects>
                <_>
                  20 13 2 2 -1.</_>
                <_>
                  20 13 2 1 2.</_></rects>
              <tilted>1</tilted></feature>
            <threshold>-2.1938899590168148e-004</threshold>
            <left_val>0.1703435927629471</left_val>
            <right_val>-0.3479672074317932</right_val></_></_>
        <_>
          <_>
            <feature>
              <rects>
                <_>
                  4 16 3 3 -1.</_>
                <_>
                  4 17 3 1 3.</_></rects>
              <tilted>0</tilted></feature>
            <threshold>-3.5132030025124550e-003</threshold>
            <left_val>0.5147312879562378</left_val>
            <right_val>-0.1309687048196793</right_val></_></_>
        <_>
          <_>
            <feature>
              <rects>
                <_>
                  2 14 5 4 -1.</_>
                <_>
                  2 15 5 2 2.</_></rects>
              <tilted>0</tilted></feature>
            <threshold>-4.0646428242325783e-003</threshold>
            <left_val>0.4312447011470795</left_val>
            <right_val>-0.1862764060497284</right_val></_></_>
        <_>
          <_>
            <feature>
              <rects>
                <_>
                  3 13 5 3 -1.</_>
                <_>
                  3 14 5 1 3.</_></rects>
              <tilted>0</tilted></feature>
            <threshold>-3.8710169028490782e-003</threshold>
            <left_val>0.4730398952960968</left_val>
            <right_val>-0.1698977947235107</right_val></_></_></trees>
      <stage_threshold>-1.2126810550689697</stage_threshold>
      <parent>2</parent>
      <next>-1</next></_>
    <_>
      <trees>
        <_>
          <_>
            <feature>
              <rects>
                <_>
                  6 10 6 7 -1.</_>
                <_>
                  9 10 3 7 2.</_></rects>
              <tilted>0</tilted></feature>
            <threshold>8.7346555665135384e-003</threshold>
            <left_val>-0.3303782045841217</left_val>
            <right_val>0.4568332135677338</right_val></_></_>
        <_>
          <_>
            <feature>
              <rects>
                <_>
                  3 7 10 2 -1.</_>
                <_>
                  3 7 5 1 2.</_>
                <_>
                  8 8 5 1 2.</_></rects>
              <tilted>0</tilted></feature>
            <threshold>-3.7243110127747059e-003</threshold>
            <left_val>0.6341320872306824</left_val>
            <right_val>-0.1928579062223434</right_val></_></_>
        <_>
          <_>
            <feature>
              <rects>
                <_>
                  3 7 8 2 -1.</_>
                <_>
                  3 7 4 1 2.</_>
                <_>
                  7 8 4 1 2.</_></rects>
              <tilted>0</tilted></feature>
            <threshold>2.7480900753289461e-003</threshold>
            <left_val>-0.1654413044452667</left_val>
            <right_val>0.5977979898452759</right_val></_></_>
        <_>
          <_>
            <feature>
              <rects>
                <_>
                  2 13 6 4 -1.</_>
                <_>
                  2 14 6 2 2.</_></rects>
              <tilted>0</tilted></feature>
            <threshold>6.8056709133088589e-003</threshold>
            <left_val>-0.1844875961542130</left_val>
            <right_val>0.5669692754745483</right_val></_></_>
        <_>
          <_>
            <feature>
              <rects>
                <_>
                  3 13 4 4 -1.</_>
                <_>
                  3 14 4 2 2.</_></rects>
              <tilted>0</tilted></feature>
            <threshold>-1.7456749919801950e-003</threshold>
            <left_val>0.4493249952793121</left_val>
            <right_val>-0.3091425001621246</right_val></_></_>
        <_>
          <_>
            <feature>
              <rects>
                <_>
                  15 1 3 3 -1.</_>
                <_>
                  14 2 3 1 3.</_></rects>
              <tilted>1</tilted></feature>
            <threshold>-7.6937051489949226e-003</threshold>
            <left_val>0.6302232742309570</left_val>
            <right_val>-0.1579643934965134</right_val></_></_>
        <_>
          <_>
            <feature>
              <rects>
                <_>
                  15 2 6 3 -1.</_>
                <_>
                  14 3 6 1 3.</_></rects>
              <tilted>1</tilted></feature>
            <threshold>0.0135742295533419</threshold>
            <left_val>-0.1452745050191879</left_val>
            <right_val>0.7250397801399231</right_val></_></_>
        <_>
          <_>
            <feature>
              <rects>
                <_>
                  8 10 16 6 -1.</_>
                <_>
                  16 10 8 6 2.</_></rects>
              <tilted>0</tilted></feature>
            <threshold>-2.8391389641910791e-003</threshold>
            <left_val>0.1722995936870575</left_val>
            <right_val>-0.7175232172012329</right_val></_></_>
        <_>
          <_>
            <feature>
              <rects>
                <_>
                  7 7 2 4 -1.</_>
                <_>
                  7 8 2 2 2.</_></rects>
              <tilted>0</tilted></feature>
            <threshold>-1.2310940073803067e-003</threshold>
            <left_val>0.4258914887905121</left_val>
            <right_val>-0.2752212882041931</right_val></_></_>
        <_>
          <_>
            <feature>
              <rects>
                <_>
                  13 1 4 3 -1.</_>
                <_>
                  12 2 4 1 3.</_></rects>
              <tilted>1</tilted></feature>
            <threshold>-7.9548927024006844e-003</threshold>
            <left_val>0.6046894192695618</left_val>
            <right_val>-0.1644071042537689</right_val></_></_>
        <_>
          <_>
            <feature>
              <rects>
                <_>
                  22 15 2 1 -1.</_>
                <_>
                  23 15 1 1 2.</_></rects>
              <tilted>0</tilted></feature>
            <threshold>-2.6784209694596939e-005</threshold>
            <left_val>0.3294599056243897</left_val>
            <right_val>-0.2593230009078980</right_val></_></_>
        <_>
          <_>
            <feature>
              <rects>
                <_>
                  11 16 3 5 -1.</_>
                <_>
                  12 17 1 5 3.</_></rects>
              <tilted>1</tilted></feature>
            <threshold>0.0101298904046416</threshold>
            <left_val>-0.1918140053749085</left_val>
            <right_val>0.5984644889831543</right_val></_></_>
        <_>
          <_>
            <feature>
              <rects>
                <_>
                  10 17 3 4 -1.</_>
                <_>
                  11 18 1 4 3.</_></rects>
              <tilted>1</tilted></feature>
            <threshold>-5.5090282112360001e-003</threshold>
            <left_val>0.6150634884834290</left_val>
            <right_val>-0.2167575955390930</right_val></_></_>
        <_>
          <_>
            <feature>
              <rects>
                <_>
                  23 11 1 2 -1.</_>
                <_>
                  23 12 1 1 2.</_></rects>
              <tilted>0</tilted></feature>
            <threshold>2.8612899768631905e-005</threshold>
            <left_val>-0.2388554066419601</left_val>
            <right_val>0.3571313023567200</right_val></_></_>
        <_>
          <_>
            <feature>
              <rects>
                <_>
                  13 10 4 2 -1.</_>
                <_>
                  13 11 4 1 2.</_></rects>
              <tilted>0</tilted></feature>
            <threshold>-1.4438879588851705e-005</threshold>
            <left_val>0.2747311890125275</left_val>
            <right_val>-0.3848445117473602</right_val></_></_>
        <_>
          <_>
            <feature>
              <rects>
                <_>
                  5 7 5 4 -1.</_>
                <_>
                  5 8 5 2 2.</_></rects>
              <tilted>0</tilted></feature>
            <threshold>5.5476040579378605e-003</threshold>
            <left_val>-0.1515205055475235</left_val>
            <right_val>0.5466669201850891</right_val></_></_>
        <_>
          <_>
            <feature>
              <rects>
                <_>
                  14 5 2 8 -1.</_>
                <_>
                  14 5 1 4 2.</_>
                <_>
                  15 9 1 4 2.</_></rects>
              <tilted>0</tilted></feature>
            <threshold>1.1956139933317900e-003</threshold>
            <left_val>-0.2699759900569916</left_val>
            <right_val>0.4105932116508484</right_val></_></_></trees>
      <stage_threshold>-1.4745470285415649</stage_threshold>
      <parent>3</parent>
      <next>-1</next></_>
    <_>
      <trees>
        <_>
          <_>
            <feature>
              <rects>
                <_>
                  6 9 10 8 -1.</_>
                <_>
                  6 13 10 4 2.</_></rects>
              <tilted>0</tilted></feature>
            <threshold>-0.0327042900025845</threshold>
            <left_val>-0.7489327192306519</left_val>
            <right_val>0.1374562978744507</right_val></_></_>
        <_>
          <_>
            <feature>
              <rects>
                <_>
                  11 4 8 1 -1.</_>
                <_>
                  11 4 4 1 2.</_></rects>
              <tilted>1</tilted></feature>
            <threshold>-0.0192414801567793</threshold>
            <left_val>0.5947567224502564</left_val>
            <right_val>-0.1707911044359207</right_val></_></_>
        <_>
          <_>
            <feature>
              <rects>
                <_>
                  4 12 6 12 -1.</_>
                <_>
                  4 16 6 4 3.</_></rects>
              <tilted>0</tilted></feature>
            <threshold>0.0530258789658546</threshold>
            <left_val>0.1050352975726128</left_val>
            <right_val>-0.7866508960723877</right_val></_></_>
        <_>
          <_>
            <feature>
              <rects>
                <_>
                  11 9 2 8 -1.</_>
                <_>
                  9 11 2 4 2.</_></rects>
              <tilted>1</tilted></feature>
            <threshold>0.0154409799724817</threshold>
            <left_val>0.1475494056940079</left_val>
            <right_val>-0.7636682987213135</right_val></_></_>
        <_>
          <_>
            <feature>
              <rects>
                <_>
                  16 1 6 3 -1.</_>
                <_>
                  15 2 6 1 3.</_></rects>
              <tilted>1</tilted></feature>
            <threshold>-0.0199907794594765</threshold>
            <left_val>0.5924323797225952</left_val>
            <right_val>-0.1492116004228592</right_val></_></_>
        <_>
          <_>
            <feature>
              <rects>
                <_>
                  10 7 3 6 -1.</_>
                <_>
                  10 7 3 3 2.</_></rects>
              <tilted>1</tilted></feature>
            <threshold>0.0268334504216909</threshold>
            <left_val>0.1396993994712830</left_val>
            <right_val>-0.6622502207756043</right_val></_></_>
        <_>
          <_>
            <feature>
              <rects>
                <_>
                  15 2 3 3 -1.</_>
                <_>
                  14 3 3 1 3.</_></rects>
              <tilted>1</tilted></feature>
            <threshold>-0.0127866202965379</threshold>
            <left_val>0.5266215801239014</left_val>
            <right_val>-0.1485498994588852</right_val></_></_>
        <_>
          <_>
            <feature>
              <rects>
                <_>
                  4 0 14 16 -1.</_>
                <_>
                  4 4 14 8 2.</_></rects>
              <tilted>0</tilted></feature>
            <threshold>-0.0870800018310547</threshold>
            <left_val>-0.7010961771011353</left_val>
            <right_val>0.1096128970384598</right_val></_></_>
        <_>
          <_>
            <feature>
              <rects>
                <_>
                  16 3 3 10 -1.</_>
                <_>
                  16 3 3 5 2.</_></rects>
              <tilted>1</tilted></feature>
            <threshold>0.0496952012181282</threshold>
            <left_val>0.0776478275656700</left_val>
            <right_val>-0.6986724734306335</right_val></_></_>
        <_>
          <_>
            <feature>
              <rects>
                <_>
                  15 1 5 3 -1.</_>
                <_>
                  14 2 5 1 3.</_></rects>
              <tilted>1</tilted></feature>
            <threshold>0.0110804401338100</threshold>
            <left_val>-0.1396405994892120</left_val>
            <right_val>0.4782848060131073</right_val></_></_>
        <_>
          <_>
            <feature>
              <rects>
                <_>
                  18 22 5 2 -1.</_>
                <_>
                  18 23 5 1 2.</_></rects>
              <tilted>0</tilted></feature>
            <threshold>-1.7831289442256093e-003</threshold>
            <left_val>-0.5343511104583740</left_val>
            <right_val>0.1116520017385483</right_val></_></_>
        <_>
          <_>
            <feature>
              <rects>
                <_>
                  18 15 2 1 -1.</_>
                <_>
                  19 15 1 1 2.</_></rects>
              <tilted>0</tilted></feature>
            <threshold>-2.7748559659812599e-005</threshold>
            <left_val>0.1610064059495926</left_val>
            <right_val>-0.3293811976909638</right_val></_></_>
        <_>
          <_>
            <feature>
              <rects>
                <_>
                  1 12 15 3 -1.</_>
                <_>
                  1 13 15 1 3.</_></rects>
              <tilted>0</tilted></feature>
            <threshold>-6.6770929843187332e-003</threshold>
            <left_val>0.4040408134460449</left_val>
            <right_val>-0.1606657058000565</right_val></_></_>
        <_>
          <_>
            <feature>
              <rects>
                <_>
                  4 12 4 3 -1.</_>
                <_>
                  4 13 4 1 3.</_></rects>
              <tilted>0</tilted></feature>
            <threshold>3.1119610648602247e-003</threshold>
            <left_val>-0.1924037039279938</left_val>
            <right_val>0.4218879044055939</right_val></_></_>
        <_>
          <_>
            <feature>
              <rects>
                <_>
                  17 12 1 3 -1.</_>
                <_>
                  17 13 1 1 3.</_></rects>
              <tilted>0</tilted></feature>
            <threshold>-5.0819892203435302e-004</threshold>
            <left_val>-0.5599331855773926</left_val>
            <right_val>0.1210672035813332</right_val></_></_>
        <_>
          <_>
            <feature>
              <rects>
                <_>
                  16 12 2 3 -1.</_>
                <_>
                  16 13 2 1 3.</_></rects>
              <tilted>0</tilted></feature>
            <threshold>1.3942869845777750e-003</threshold>
            <left_val>0.0746423974633217</left_val>
            <right_val>-0.7157086133956909</right_val></_></_>
        <_>
          <_>
            <feature>
              <rects>
                <_>
                  5 9 8 10 -1.</_>
                <_>
                  5 9 4 5 2.</_>
                <_>
                  9 14 4 5 2.</_></rects>
              <tilted>0</tilted></feature>
            <threshold>0.0290695093572140</threshold>
            <left_val>0.0562282092869282</left_val>
            <right_val>-0.7700036168098450</right_val></_></_>
        <_>
          <_>
            <feature>
              <rects>
                <_>
                  10 17 3 3 -1.</_>
                <_>
                  11 18 1 3 3.</_></rects>
              <tilted>1</tilted></feature>
            <threshold>0.0103967897593975</threshold>
            <left_val>-0.1243103966116905</left_val>
            <right_val>0.5465989708900452</right_val></_></_></trees>
      <stage_threshold>-1.1247140169143677</stage_threshold>
      <parent>4</parent>
      <next>-1</next></_>
    <_>
      <trees>
        <_>
          <_>
            <feature>
              <rects>
                <_>
                  7 18 8 4 -1.</_>
                <_>
                  7 18 4 2 2.</_>
                <_>
                  11 20 4 2 2.</_></rects>
              <tilted>0</tilted></feature>
            <threshold>-0.0160181894898415</threshold>
            <left_val>0.5222474932670593</left_val>
            <right_val>-0.1453592032194138</right_val></_></_>
        <_>
          <_>
            <feature>
              <rects>
                <_>
                  10 18 3 3 -1.</_>
                <_>
                  11 19 1 3 3.</_></rects>
              <tilted>1</tilted></feature>
            <threshold>-0.0109929097816348</threshold>
            <left_val>0.6167789101600647</left_val>
            <right_val>-0.0948776230216026</right_val></_></_>
        <_>
          <_>
            <feature>
              <rects>
                <_>
                  17 1 7 3 -1.</_>
                <_>
                  16 2 7 1 3.</_></rects>
              <tilted>1</tilted></feature>
            <threshold>-0.0162552408874035</threshold>
            <left_val>0.5631229281425476</left_val>
            <right_val>-0.1095857024192810</right_val></_></_>
        <_>
          <_>
            <feature>
              <rects>
                <_>
                  6 8 1 8 -1.</_>
                <_>
                  6 12 1 4 2.</_></rects>
              <tilted>0</tilted></feature>
            <threshold>7.2575588710606098e-003</threshold>
            <left_val>0.0882359370589256</left_val>
            <right_val>-0.8127192258834839</right_val></_></_>
        <_>
          <_>
            <feature>
              <rects>
                <_>
                  0 6 24 18 -1.</_>
                <_>
                  8 12 8 6 9.</_></rects>
              <tilted>0</tilted></feature>
            <threshold>0.6843798756599426</threshold>
            <left_val>-0.1261284053325653</left_val>
            <right_val>0.4605850875377655</right_val></_></_>
        <_>
          <_>
            <feature>
              <rects>
                <_>
                  15 1 7 2 -1.</_>
                <_>
                  15 1 7 1 2.</_></rects>
              <tilted>1</tilted></feature>
            <threshold>0.0161562692373991</threshold>
            <left_val>-0.1124219000339508</left_val>
            <right_val>0.6689320802688599</right_val></_></_>
        <_>
          <_>
            <feature>
              <rects>
                <_>
                  0 0 16 21 -1.</_>
                <_>
                  8 0 8 21 2.</_></rects>
              <tilted>0</tilted></feature>
            <threshold>-0.2055273056030273</threshold>
            <left_val>0.5065522193908691</left_val>
            <right_val>-0.1246614009141922</right_val></_></_>
        <_>
          <_>
            <feature>
              <rects>
                <_>
                  4 0 20 15 -1.</_>
                <_>
                  9 0 10 15 2.</_></rects>
              <tilted>0</tilted></feature>
            <threshold>0.1197889968752861</threshold>
            <left_val>-0.1918682008981705</left_val>
            <right_val>0.3024795055389404</right_val></_></_>
        <_>
          <_>
            <feature>
              <rects>
                <_>
                  5 13 3 3 -1.</_>
                <_>
                  5 14 3 1 3.</_></rects>
              <tilted>0</tilted></feature>
            <threshold>2.5912749115377665e-003</threshold>
            <left_val>-0.1547619998455048</left_val>
            <right_val>0.4180921018123627</right_val></_></_>
        <_>
          <_>
            <feature>
              <rects>
                <_>
                  4 13 5 3 -1.</_>
                <_>
                  4 14 5 1 3.</_></rects>
              <tilted>0</tilted></feature>
            <threshold>-6.3536949455738068e-003</threshold>
            <left_val>0.5062265992164612</left_val>
            <right_val>-0.1343380063772202</right_val></_></_>
        <_>
          <_>
            <feature>
              <rects>
                <_>
                  15 13 3 8 -1.</_>
                <_>
                  13 15 3 4 2.</_></rects>
              <tilted>1</tilted></feature>
            <threshold>-0.0188012197613716</threshold>
            <left_val>-0.6779186725616455</left_val>
            <right_val>0.0928261801600456</right_val></_></_>
        <_>
          <_>
            <feature>
              <rects>
                <_>
                  7 19 4 2 -1.</_>
                <_>
                  7 19 2 1 2.</_>
                <_>
                  9 20 2 1 2.</_></rects>
              <tilted>0</tilted></feature>
            <threshold>1.8814170034602284e-003</threshold>
            <left_val>-0.1153580024838448</left_val>
            <right_val>0.4901179075241089</right_val></_></_>
        <_>
          <_>
            <feature>
              <rects>
                <_>
                  10 18 1 3 -1.</_>
                <_>
                  10 19 1 1 3.</_></rects>
              <tilted>0</tilted></feature>
            <threshold>7.3250080458819866e-004</threshold>
            <left_val>-0.1668552011251450</left_val>
            <right_val>0.3733015060424805</right_val></_></_>
        <_>
          <_>
            <feature>
              <rects>
                <_>
                  12 13 2 4 -1.</_>
                <_>
                  12 14 2 2 2.</_></rects>
              <tilted>0</tilted></feature>
            <threshold>-2.4055859539657831e-003</threshold>
            <left_val>-0.8104013800621033</left_val>
            <right_val>0.0694131404161453</right_val></_></_>
        <_>
          <_>
            <feature>
              <rects>
                <_>
                  15 13 9 10 -1.</_>
                <_>
                  15 18 9 5 2.</_></rects>
              <tilted>0</tilted></feature>
            <threshold>0.0462216287851334</threshold>
            <left_val>-0.1539285928010941</left_val>
            <right_val>0.3820435106754303</right_val></_></_>
        <_>
          <_>
            <feature>
              <rects>
                <_>
                  11 0 8 10 -1.</_>
                <_>
                  11 0 4 5 2.</_>
                <_>
                  15 5 4 5 2.</_></rects>
              <tilted>0</tilted></feature>
            <threshold>0.0215414799749851</threshold>
            <left_val>-0.1383807063102722</left_val>
            <right_val>0.4119344949722290</right_val></_></_>
        <_>
          <_>
            <feature>
              <rects>
                <_>
                  10 10 6 7 -1.</_>
                <_>
                  10 10 3 7 2.</_></rects>
              <tilted>1</tilted></feature>
            <threshold>-0.0477421097457409</threshold>
            <left_val>-0.6582912206649780</left_val>
            <right_val>0.0897663980722427</right_val></_></_>
        <_>
          <_>
            <feature>
              <rects>
                <_>
                  2 16 4 3 -1.</_>
                <_>
                  2 17 4 1 3.</_></rects>
              <tilted>0</tilted></feature>
            <threshold>4.1415099985897541e-003</threshold>
            <left_val>-0.1393904983997345</left_val>
            <right_val>0.4067847132682800</right_val></_></_>
        <_>
          <_>
            <feature>
              <rects>
                <_>
                  0 12 9 12 -1.</_>
                <_>
                  0 16 9 4 3.</_></rects>
              <tilted>0</tilted></feature>
            <threshold>0.0543523617088795</threshold>
            <left_val>0.1009783968329430</left_val>
            <right_val>-0.5835658907890320</right_val></_></_>
        <_>
          <_>
            <feature>
              <rects>
                <_>
                  13 12 3 1 -1.</_>
                <_>
                  14 13 1 1 3.</_></rects>
              <tilted>1</tilted></feature>
            <threshold>1.1812209850177169e-003</threshold>
            <left_val>0.0883160680532455</left_val>
            <right_val>-0.5530849099159241</right_val></_></_>
        <_>
          <_>
            <feature>
              <rects>
                <_>
                  2 15 4 3 -1.</_>
                <_>
                  2 16 4 1 3.</_></rects>
              <tilted>0</tilted></feature>
            <threshold>3.4605129621922970e-003</threshold>
            <left_val>-0.1465899050235748</left_val>
            <right_val>0.3975828886032105</right_val></_></_>
        <_>
          <_>
            <feature>
              <rects>
                <_>
                  5 15 1 3 -1.</_>
                <_>
                  5 16 1 1 3.</_></rects>
              <tilted>0</tilted></feature>
            <threshold>-9.9015142768621445e-004</threshold>
            <left_val>0.3851810991764069</left_val>
            <right_val>-0.1629471927881241</right_val></_></_>
        <_>
          <_>
            <feature>
              <rects>
                <_>
                  12 12 7 3 -1.</_>
                <_>
                  12 13 7 1 3.</_></rects>
              <tilted>0</tilted></feature>
            <threshold>-3.0916510149836540e-003</threshold>
            <left_val>-0.7051662802696228</left_val>
            <right_val>0.0967886522412300</right_val></_></_>
        <_>
          <_>
            <feature>
              <rects>
                <_>
                  8 13 3 4 -1.</_>
                <_>
                  7 14 3 2 2.</_></rects>
              <tilted>1</tilted></feature>
            <threshold>-9.5584671944379807e-003</threshold>
            <left_val>-0.7262045145034790</left_val>
            <right_val>0.0610579885542393</right_val></_></_>
        <_>
          <_>
            <feature>
              <rects>
                <_>
                  12 1 5 3 -1.</_>
                <_>
                  11 2 5 1 3.</_></rects>
              <tilted>1</tilted></feature>
            <threshold>0.0150062199681997</threshold>
            <left_val>-0.1083156988024712</left_val>
            <right_val>0.5142949223518372</right_val></_></_>
        <_>
          <_>
            <feature>
              <rects>
                <_>
                  5 6 3 12 -1.</_>
                <_>
                  5 10 3 4 3.</_></rects>
              <tilted>0</tilted></feature>
            <threshold>-0.0253527592867613</threshold>
            <left_val>-0.6987782120704651</left_val>
            <right_val>0.0813033133745193</right_val></_></_>
        <_>
          <_>
            <feature>
              <rects>
                <_>
                  4 9 6 4 -1.</_>
                <_>
                  4 10 6 2 2.</_></rects>
              <tilted>0</tilted></feature>
            <threshold>-0.0112124299630523</threshold>
            <left_val>0.5506299138069153</left_val>
            <right_val>-0.1020931974053383</right_val></_></_>
        <_>
          <_>
            <feature>
              <rects>
                <_>
                  6 11 4 3 -1.</_>
                <_>
                  6 12 4 1 3.</_></rects>
              <tilted>0</tilted></feature>
            <threshold>-1.1566899484023452e-003</threshold>
            <left_val>0.3241727948188782</left_val>
            <right_val>-0.1958609968423843</right_val></_></_>
        <_>
          <_>
            <feature>
              <rects>
                <_>
                  11 5 1 4 -1.</_>
                <_>
                  10 6 1 2 2.</_></rects>
              <tilted>1</tilted></feature>
            <threshold>3.2743730116635561e-003</threshold>
            <left_val>-0.1263363063335419</left_val>
            <right_val>0.4192833900451660</right_val></_></_></trees>
      <stage_threshold>-1.3010469675064087</stage_threshold>
      <parent>5</parent>
      <next>-1</next></_>
    <_>
      <trees>
        <_>
          <_>
            <feature>
              <rects>
                <_>
                  10 4 6 20 -1.</_>
                <_>
                  10 9 6 10 2.</_></rects>
              <tilted>0</tilted></feature>
            <threshold>0.1038217991590500</threshold>
            <left_val>-0.1995885968208313</left_val>
            <right_val>0.6288655996322632</right_val></_></_>
        <_>
          <_>
            <feature>
              <rects>
                <_>
                  18 12 2 2 -1.</_>
                <_>
                  18 12 1 1 2.</_>
                <_>
                  19 13 1 1 2.</_></rects>
              <tilted>0</tilted></feature>
            <threshold>-3.8586059235967696e-004</threshold>
            <left_val>-0.6514506936073303</left_val>
            <right_val>0.1398521065711975</right_val></_></_>
        <_>
          <_>
            <feature>
              <rects>
                <_>
                  9 12 6 4 -1.</_>
                <_>
                  9 12 3 4 2.</_></rects>
              <tilted>1</tilted></feature>
            <threshold>0.0143456002697349</threshold>
            <left_val>0.1310167014598846</left_val>
            <right_val>-0.5549963712692261</right_val></_></_>
        <_>
          <_>
            <feature>
              <rects>
                <_>
                  16 14 2 2 -1.</_>
                <_>
                  16 14 1 1 2.</_>
                <_>
                  17 15 1 1 2.</_></rects>
              <tilted>0</tilted></feature>
            <threshold>4.3149359407834709e-004</threshold>
            <left_val>0.0983349308371544</left_val>
            <right_val>-0.6924840211868286</right_val></_></_>
        <_>
          <_>
            <feature>
              <rects>
                <_>
                  3 3 21 21 -1.</_>
                <_>
                  10 10 7 7 9.</_></rects>
              <tilted>0</tilted></feature>
            <threshold>-0.5194566845893860</threshold>
            <left_val>0.6107752919197083</left_val>
            <right_val>-0.0978798791766167</right_val></_></_>
        <_>
          <_>
            <feature>
              <rects>
                <_>
                  4 15 6 4 -1.</_>
                <_>
                  4 16 6 2 2.</_></rects>
              <tilted>0</tilted></feature>
            <threshold>7.7731898054480553e-003</threshold>
            <left_val>-0.1286430060863495</left_val>
            <right_val>0.5113052725791931</right_val></_></_>
        <_>
          <_>
            <feature>
              <rects>
                <_>
                  3 13 6 4 -1.</_>
                <_>
                  3 14 6 2 2.</_></rects>
              <tilted>0</tilted></feature>
            <threshold>0.0101888300850987</threshold>
            <left_val>-0.1177238970994949</left_val>
            <right_val>0.5550639033317566</right_val></_></_>
        <_>
          <_>
            <feature>
              <rects>
                <_>
                  5 11 4 5 -1.</_>
                <_>
                  7 11 2 5 2.</_></rects>
              <tilted>0</tilted></feature>
            <threshold>-0.0121240001171827</threshold>
            <left_val>-0.7950252294540405</left_val>
            <right_val>0.1101894006133080</right_val></_></_>
        <_>
          <_>
            <feature>
              <rects>
                <_>
                  15 6 3 8 -1.</_>
                <_>
                  15 6 3 4 2.</_></rects>
              <tilted>1</tilted></feature>
            <threshold>-0.0165934599936008</threshold>
            <left_val>-0.4387956857681274</left_val>
            <right_val>0.1196383014321327</right_val></_></_>
        <_>
          <_>
            <feature>
              <rects>
                <_>
                  2 9 6 4 -1.</_>
                <_>
                  2 10 6 2 2.</_></rects>
              <tilted>0</tilted></feature>
            <threshold>-6.3127139583230019e-003</threshold>
            <left_val>0.4131183922290802</left_val>
            <right_val>-0.1411900967359543</right_val></_></_>
        <_>
          <_>
            <feature>
              <rects>
                <_>
                  3 10 8 3 -1.</_>
                <_>
                  3 11 8 1 3.</_></rects>
              <tilted>0</tilted></feature>
            <threshold>4.5949132181704044e-003</threshold>
            <left_val>-0.1773473024368286</left_val>
            <right_val>0.3659496009349823</right_val></_></_>
        <_>
          <_>
            <feature>
              <rects>
                <_>
                  6 7 4 6 -1.</_>
                <_>
                  6 9 4 2 3.</_></rects>
              <tilted>0</tilted></feature>
            <threshold>0.0131374299526215</threshold>
            <left_val>-0.1177825033664703</left_val>
            <right_val>0.4500992894172669</right_val></_></_>
        <_>
          <_>
            <feature>
              <rects>
                <_>
                  4 7 4 10 -1.</_>
                <_>
                  4 7 2 5 2.</_>
                <_>
                  6 12 2 5 2.</_></rects>
              <tilted>0</tilted></feature>
            <threshold>-9.9444426596164703e-003</threshold>
            <left_val>-0.5910990238189697</left_val>
            <right_val>0.0893604233860970</right_val></_></_>
        <_>
          <_>
            <feature>
              <rects>
                <_>
                  20 0 4 12 -1.</_>
                <_>
                  20 3 4 6 2.</_></rects>
              <tilted>0</tilted></feature>
            <threshold>0.0225091893225908</threshold>
            <left_val>-0.1545139998197556</left_val>
            <right_val>0.3931559920310974</right_val></_></_>
        <_>
          <_>
            <feature>
              <rects>
                <_>
                  19 14 1 4 -1.</_>
                <_>
                  18 15 1 2 2.</_></rects>
              <tilted>1</tilted></feature>
            <threshold>-3.3553130924701691e-003</threshold>
            <left_val>-0.7829080820083618</left_val>
            <right_val>0.0781679525971413</right_val></_></_>
        <_>
          <_>
            <feature>
              <rects>
                <_>
                  4 7 3 6 -1.</_>
                <_>
                  4 9 3 2 3.</_></rects>
              <tilted>0</tilted></feature>
            <threshold>-0.0160016808658838</threshold>
            <left_val>0.5062636733055115</left_val>
            <right_val>-0.1135979965329170</right_val></_></_>
        <_>
          <_>
            <feature>
              <rects>
                <_>
                  8 10 6 6 -1.</_>
                <_>
                  8 13 6 3 2.</_></rects>
              <tilted>0</tilted></feature>
            <threshold>-0.0173039995133877</threshold>
            <left_val>-0.6862148046493530</left_val>
            <right_val>0.0926403030753136</right_val></_></_>
        <_>
          <_>
            <feature>
              <rects>
                <_>
                  18 10 3 1 -1.</_>
                <_>
                  19 11 1 1 3.</_></rects>
              <tilted>1</tilted></feature>
            <threshold>2.1439820993691683e-003</threshold>
            <left_val>0.0592287518084049</left_val>
            <right_val>-0.5926223993301392</right_val></_></_>
        <_>
          <_>
            <feature>
              <rects>
                <_>
                  18 15 1 6 -1.</_>
                <_>
                  18 18 1 3 2.</_></rects>
              <tilted>0</tilted></feature>
            <threshold>-2.3826661054044962e-003</threshold>
            <left_val>0.3242760002613068</left_val>
            <right_val>-0.1540599018335342</right_val></_></_>
        <_>
          <_>
            <feature>
              <rects>
                <_>
                  18 14 6 8 -1.</_>
                <_>
                  18 18 6 4 2.</_></rects>
              <tilted>0</tilted></feature>
            <threshold>0.0406940095126629</threshold>
            <left_val>-0.1298108994960785</left_val>
            <right_val>0.4552111923694611</right_val></_></_>
        <_>
          <_>
            <feature>
              <rects>
                <_>
                  19 11 1 3 -1.</_>
                <_>
                  19 12 1 1 3.</_></rects>
              <tilted>0</tilted></feature>
            <threshold>-3.5585821024142206e-004</threshold>
            <left_val>-0.4251773059368134</left_val>
            <right_val>0.1123289987444878</right_val></_></_>
        <_>
          <_>
            <feature>
              <rects>
                <_>
                  3 10 3 4 -1.</_>
                <_>
                  3 11 3 2 2.</_></rects>
              <tilted>0</tilted></feature>
            <threshold>-6.8335798569023609e-003</threshold>
            <left_val>0.4813014864921570</left_val>
            <right_val>-0.1001823022961617</right_val></_></_>
        <_>
          <_>
            <feature>
              <rects>
                <_>
                  0 14 14 8 -1.</_>
                <_>
                  0 16 14 4 2.</_></rects>
              <tilted>0</tilted></feature>
            <threshold>-0.0299331508576870</threshold>
            <left_val>-0.6127449274063110</left_val>
            <right_val>0.0892939269542694</right_val></_></_></trees>
      <stage_threshold>-1.2180850505828857</stage_threshold>
      <parent>6</parent>
      <next>-1</next></_>
    <_>
      <trees>
        <_>
          <_>
            <feature>
              <rects>
                <_>
                  4 9 20 11 -1.</_>
                <_>
                  9 9 10 11 2.</_></rects>
              <tilted>0</tilted></feature>
            <threshold>0.1388304978609085</threshold>
            <left_val>-0.2247797995805740</left_val>
            <right_val>0.3502947986125946</right_val></_></_>
        <_>
          <_>
            <feature>
              <rects>
                <_>
                  4 16 3 3 -1.</_>
                <_>
                  4 17 3 1 3.</_></rects>
              <tilted>0</tilted></feature>
            <threshold>-4.0013208054006100e-003</threshold>
            <left_val>0.4987472891807556</left_val>
            <right_val>-0.1254291981458664</right_val></_></_>
        <_>
          <_>
            <feature>
              <rects>
                <_>
                  10 18 3 3 -1.</_>
                <_>
                  11 19 1 3 3.</_></rects>
              <tilted>1</tilted></feature>
            <threshold>0.0143761895596981</threshold>
            <left_val>-0.0875228792428970</left_val>
            <right_val>0.6733651161193848</right_val></_></_>
        <_>
          <_>
            <feature>
              <rects>
                <_>
                  9 17 3 4 -1.</_>
                <_>
                  10 18 1 4 3.</_></rects>
              <tilted>1</tilted></feature>
            <threshold>9.9284779280424118e-003</threshold>
            <left_val>-0.1301687955856323</left_val>
            <right_val>0.5116671919822693</right_val></_></_>
        <_>
          <_>
            <feature>
              <rects>
                <_>
                  11 16 3 5 -1.</_>
                <_>
                  12 17 1 5 3.</_></rects>
              <tilted>1</tilted></feature>
            <threshold>-0.0119985695928335</threshold>
            <left_val>0.5834537744522095</left_val>
            <right_val>-0.1102600991725922</right_val></_></_>
        <_>
          <_>
            <feature>
              <rects>
                <_>
                  15 14 1 3 -1.</_>
                <_>
                  15 15 1 1 3.</_></rects>
              <tilted>0</tilted></feature>
            <threshold>8.8767777197062969e-004</threshold>
            <left_val>0.0930299833416939</left_val>
            <right_val>-0.6864367127418518</right_val></_></_>
        <_>
          <_>
            <feature>
              <rects>
                <_>
                  3 15 2 3 -1.</_>
                <_>
                  3 16 2 1 3.</_></rects>
              <tilted>0</tilted></feature>
            <threshold>-2.9034619219601154e-003</threshold>
            <left_val>0.4631394147872925</left_val>
            <right_val>-0.1006691008806229</right_val></_></_>
        <_>
          <_>
            <feature>
              <rects>
                <_>
                  13 12 4 3 -1.</_>
                <_>
                  13 13 4 1 3.</_></rects>
              <tilted>0</tilted></feature>
            <threshold>3.0642480123788118e-003</threshold>
            <left_val>0.0575608797371387</left_val>
            <right_val>-0.8716182112693787</right_val></_></_>
        <_>
          <_>
            <feature>
              <rects>
                <_>
                  4 14 5 3 -1.</_>
                <_>
                  4 15 5 1 3.</_></rects>
              <tilted>0</tilted></feature>
            <threshold>-5.7402998208999634e-003</threshold>
            <left_val>0.4473451972007752</left_val>
            <right_val>-0.1210948973894119</right_val></_></_>
        <_>
          <_>
            <feature>
              <rects>
                <_>
                  9 2 4 12 -1.</_>
                <_>
                  9 8 4 6 2.</_></rects>
              <tilted>0</tilted></feature>
            <threshold>-0.0236336104571819</threshold>
            <left_val>0.3727633953094482</left_val>
            <right_val>-0.1567730009555817</right_val></_></_>
        <_>
          <_>
            <feature>
              <rects>
                <_>
                  4 15 8 1 -1.</_>
                <_>
                  4 15 4 1 2.</_></rects>
              <tilted>1</tilted></feature>
            <threshold>-0.0118653299286962</threshold>
            <left_val>-0.5718635916709900</left_val>
            <right_val>0.0963375568389893</right_val></_></_>
        <_>
          <_>
            <feature>
              <rects>
                <_>
                  16 1 8 3 -1.</_>
                <_>
                  15 2 8 1 3.</_></rects>
              <tilted>1</tilted></feature>
            <threshold>-0.0279454197734594</threshold>
            <left_val>0.6106030941009522</left_val>
            <right_val>-0.0703215003013611</right_val></_></_>
        <_>
          <_>
            <feature>
              <rects>
                <_>
                  1 13 7 3 -1.</_>
                <_>
                  1 14 7 1 3.</_></rects>
              <tilted>0</tilted></feature>
            <threshold>-9.1756656765937805e-003</threshold>
            <left_val>0.4724270105361939</left_val>
            <right_val>-0.1065137013792992</right_val></_></_>
        <_>
          <_>
            <feature>
              <rects>
                <_>
                  17 0 7 4 -1.</_>
                <_>
                  17 0 7 2 2.</_></rects>
              <tilted>1</tilted></feature>
            <threshold>-0.0598640702664852</threshold>
            <left_val>0.5478711128234863</left_val>
            <right_val>-0.0893145129084587</right_val></_></_>
        <_>
          <_>
            <feature>
              <rects>
                <_>
                  16 3 7 3 -1.</_>
                <_>
                  15 4 7 1 3.</_></rects>
              <tilted>1</tilted></feature>
            <threshold>-0.0150727704167366</threshold>
            <left_val>0.4537403881549835</left_val>
            <right_val>-0.1038974970579147</right_val></_></_>
        <_>
          <_>
            <feature>
              <rects>
                <_>
                  6 12 2 6 -1.</_>
                <_>
                  6 15 2 3 2.</_></rects>
              <tilted>0</tilted></feature>
            <threshold>8.7428037077188492e-003</threshold>
            <left_val>0.0702655836939812</left_val>
            <right_val>-0.7000365853309631</right_val></_></_>
        <_>
          <_>
            <feature>
              <rects>
                <_>
                  3 12 7 3 -1.</_>
                <_>
                  3 13 7 1 3.</_></rects>
              <tilted>0</tilted></feature>
            <threshold>-5.5387630127370358e-003</threshold>
            <left_val>0.3862689137458801</left_val>
            <right_val>-0.1416568011045456</right_val></_></_>
        <_>
          <_>
            <feature>
              <rects>
                <_>
                  5 10 2 4 -1.</_>
                <_>
                  5 11 2 2 2.</_></rects>
              <tilted>0</tilted></feature>
            <threshold>-3.4188199788331985e-003</threshold>
            <left_val>0.3727980852127075</left_val>
            <right_val>-0.1326193958520889</right_val></_></_>
        <_>
          <_>
            <feature>
              <rects>
                <_>
                  14 13 2 3 -1.</_>
                <_>
                  14 14 2 1 3.</_></rects>
              <tilted>0</tilted></feature>
            <threshold>1.3302790466696024e-003</threshold>
            <left_val>0.0911391973495483</left_val>
            <right_val>-0.6479309201240540</right_val></_></_>
        <_>
          <_>
            <feature>
              <rects>
                <_>
                  22 14 2 1 -1.</_>
                <_>
                  23 14 1 1 2.</_></rects>
              <tilted>0</tilted></feature>
            <threshold>-2.8474929422372952e-005</threshold>
            <left_val>0.1647275984287262</left_val>
            <right_val>-0.2857855856418610</right_val></_></_>
        <_>
          <_>
            <feature>
              <rects>
                <_>
                  20 13 4 3 -1.</_>
                <_>
                  21 13 2 3 2.</_></rects>
              <tilted>0</tilted></feature>
            <threshold>1.2874309904873371e-003</threshold>
            <left_val>0.1036794036626816</left_val>
            <right_val>-0.4910379946231842</right_val></_></_>
        <_>
          <_>
            <feature>
              <rects>
                <_>
                  4 1 20 3 -1.</_>
                <_>
                  9 6 10 3 2.</_></rects>
              <tilted>1</tilted></feature>
            <threshold>0.1296249032020569</threshold>
            <left_val>-0.1189993023872376</left_val>
            <right_val>0.4109655022621155</right_val></_></_>
        <_>
          <_>
            <feature>
              <rects>
                <_>
                  13 15 9 8 -1.</_>
                <_>
                  13 19 9 4 2.</_></rects>
              <tilted>0</tilted></feature>
            <threshold>0.0351156592369080</threshold>
            <left_val>-0.1366879045963287</left_val>
            <right_val>0.3889547884464264</right_val></_></_>
        <_>
          <_>
            <feature>
              <rects>
                <_>
                  22 11 1 2 -1.</_>
                <_>
                  22 12 1 1 2.</_></rects>
              <tilted>0</tilted></feature>
            <threshold>2.8107469915994443e-005</threshold>
            <left_val>-0.2201855033636093</left_val>
            <right_val>0.2315509021282196</right_val></_></_>
        <_>
          <_>
            <feature>
              <rects>
                <_>
                  3 17 4 3 -1.</_>
                <_>
                  3 18 4 1 3.</_></rects>
              <tilted>0</tilted></feature>
            <threshold>-3.0059420969337225e-003</threshold>
            <left_val>0.3491159975528717</left_val>
            <right_val>-0.1319243013858795</right_val></_></_>
        <_>
          <_>
            <feature>
              <rects>
                <_>
                  3 12 9 3 -1.</_>
                <_>
                  6 12 3 3 3.</_></rects>
              <tilted>0</tilted></feature>
            <threshold>-1.2692309683188796e-003</threshold>
            <left_val>0.1925051957368851</left_val>
            <right_val>-0.2374632060527802</right_val></_></_>
        <_>
          <_>
            <feature>
              <rects>
                <_>
                  14 11 6 2 -1.</_>
                <_>
                  14 11 3 1 2.</_>
                <_>
                  17 12 3 1 2.</_></rects>
              <tilted>0</tilted></feature>
            <threshold>2.3129920009523630e-003</threshold>
            <left_val>0.0617941506206989</left_val>
            <right_val>-0.6316450834274292</right_val></_></_>
        <_>
          <_>
            <feature>
              <rects>
                <_>
                  12 1 5 3 -1.</_>
                <_>
                  11 2 5 1 3.</_></rects>
              <tilted>1</tilted></feature>
            <threshold>-0.0119318198412657</threshold>
            <left_val>0.4678880870342255</left_val>
            <right_val>-0.1007834002375603</right_val></_></_>
        <_>
          <_>
            <feature>
              <rects>
                <_>
                  11 3 4 3 -1.</_>
                <_>
                  10 4 4 1 3.</_></rects>
              <tilted>1</tilted></feature>
            <threshold>-5.0464631058275700e-003</threshold>
            <left_val>0.3233708143234253</left_val>
            <right_val>-0.1387197971343994</right_val></_></_></trees>
      <stage_threshold>-1.1326730251312256</stage_threshold>
      <parent>7</parent>
      <next>-1</next></_>
    <_>
      <trees>
        <_>
          <_>
            <feature>
              <rects>
                <_>
                  10 16 3 3 -1.</_>
                <_>
                  11 17 1 3 3.</_></rects>
              <tilted>1</tilted></feature>
            <threshold>-9.8262652754783630e-003</threshold>
            <left_val>0.6156380176544190</left_val>
            <right_val>-0.1197410970926285</right_val></_></_>
        <_>
          <_>
            <feature>
              <rects>
                <_>
                  13 14 3 6 -1.</_>
                <_>
                  14 15 1 6 3.</_></rects>
              <tilted>1</tilted></feature>
            <threshold>0.0109746996313334</threshold>
            <left_val>-0.1306798011064529</left_val>
            <right_val>0.4579044878482819</right_val></_></_>
        <_>
          <_>
            <feature>
              <rects>
                <_>
                  11 17 3 3 -1.</_>
                <_>
                  12 18 1 3 3.</_></rects>
              <tilted>1</tilted></feature>
            <threshold>-0.0102766202762723</threshold>
            <left_val>0.5842797160148621</left_val>
            <right_val>-0.0958534479141235</right_val></_></_>
        <_>
          <_>
            <feature>
              <rects>
                <_>
                  11 4 6 3 -1.</_>
                <_>
                  11 4 3 3 2.</_></rects>
              <tilted>1</tilted></feature>
            <threshold>-0.0242040101438761</threshold>
            <left_val>0.3362624049186707</left_val>
            <right_val>-0.1421014964580536</right_val></_></_>
        <_>
          <_>
            <feature>
              <rects>
                <_>
                  11 11 2 2 -1.</_>
                <_>
                  12 11 1 2 2.</_></rects>
              <tilted>0</tilted></feature>
            <threshold>-2.8159949579276145e-005</threshold>
            <left_val>0.1906581968069077</left_val>
            <right_val>-0.2919431030750275</right_val></_></_>
        <_>
          <_>
            <feature>
              <rects>
                <_>
                  13 16 1 2 -1.</_>
                <_>
                  13 17 1 1 2.</_></rects>
              <tilted>0</tilted></feature>
            <threshold>2.3650189177715220e-005</threshold>
            <left_val>-0.2435730993747711</left_val>
            <right_val>0.2059943974018097</right_val></_></_>
        <_>
          <_>
            <feature>
              <rects>
                <_>
                  12 12 4 3 -1.</_>
                <_>
                  13 13 2 3 2.</_></rects>
              <tilted>1</tilted></feature>
            <threshold>-5.1119248382747173e-003</threshold>
            <left_val>-0.5421162247657776</left_val>
            <right_val>0.1321735978126526</right_val></_></_>
        <_>
          <_>
            <feature>
              <rects>
                <_>
                  14 1 2 3 -1.</_>
                <_>
                  13 2 2 1 3.</_></rects>
              <tilted>1</tilted></feature>
            <threshold>-8.4601286798715591e-003</threshold>
            <left_val>0.5243309736251831</left_val>
            <right_val>-0.0881874635815620</right_val></_></_>
        <_>
          <_>
            <feature>
              <rects>
                <_>
                  15 0 3 3 -1.</_>
                <_>
                  14 1 3 1 3.</_></rects>
              <tilted>1</tilted></feature>
            <threshold>-9.2316027730703354e-003</threshold>
            <left_val>0.4459810853004456</left_val>
            <right_val>-0.1061161980032921</right_val></_></_>
        <_>
          <_>
            <feature>
              <rects>
                <_>
                  14 0 6 3 -1.</_>
                <_>
                  13 1 6 1 3.</_></rects>
              <tilted>1</tilted></feature>
            <threshold>0.0213029496371746</threshold>
            <left_val>-0.0925896167755127</left_val>
            <right_val>0.5916054844856262</right_val></_></_>
        <_>
          <_>
            <feature>
              <rects>
                <_>
                  5 14 3 3 -1.</_>
                <_>
                  5 15 3 1 3.</_></rects>
              <tilted>0</tilted></feature>
            <threshold>4.0095751173794270e-003</threshold>
            <left_val>-0.1004450991749764</left_val>
            <right_val>0.4545445144176483</right_val></_></_>
        <_>
          <_>
            <feature>
              <rects>
                <_>
                  4 10 5 3 -1.</_>
                <_>
                  4 11 5 1 3.</_></rects>
              <tilted>0</tilted></feature>
            <threshold>-5.3182169795036316e-003</threshold>
            <left_val>0.4002555906772614</left_val>
            <right_val>-0.1286040991544724</right_val></_></_>
        <_>
          <_>
            <feature>
              <rects>
                <_>
                  10 13 4 4 -1.</_>
                <_>
                  10 15 4 2 2.</_></rects>
              <tilted>0</tilted></feature>
            <threshold>6.9176899269223213e-003</threshold>
            <left_val>0.0638857036828995</left_val>
            <right_val>-0.7190805077552795</right_val></_></_>
        <_>
          <_>
            <feature>
              <rects>
                <_>
                  6 10 3 3 -1.</_>
                <_>
                  6 11 3 1 3.</_></rects>
              <tilted>0</tilted></feature>
            <threshold>2.0814100280404091e-003</threshold>
            <left_val>-0.1541130989789963</left_val>
            <right_val>0.3449059128761292</right_val></_></_>
        <_>
          <_>
            <feature>
              <rects>
                <_>
                  4 7 3 10 -1.</_>
                <_>
                  4 12 3 5 2.</_></rects>
              <tilted>0</tilted></feature>
            <threshold>0.0253897905349731</threshold>
            <left_val>0.0698828324675560</left_val>
            <right_val>-0.7739744186401367</right_val></_></_>
        <_>
          <_>
            <feature>
              <rects>
                <_>
                  1 3 9 15 -1.</_>
                <_>
                  4 8 3 5 9.</_></rects>
              <tilted>0</tilted></feature>
            <threshold>0.1204982995986939</threshold>
            <left_val>0.0629514232277870</left_val>
            <right_val>-0.6467818021774292</right_val></_></_>
        <_>
          <_>
            <feature>
              <rects>
                <_>
                  15 11 3 3 -1.</_>
                <_>
                  15 12 3 1 3.</_></rects>
              <tilted>0</tilted></feature>
            <threshold>1.9500519847497344e-003</threshold>
            <left_val>0.0642206370830536</left_val>
            <right_val>-0.6790642738342285</right_val></_></_>
        <_>
          <_>
            <feature>
              <rects>
                <_>
                  4 11 5 4 -1.</_>
                <_>
                  4 12 5 2 2.</_></rects>
              <tilted>0</tilted></feature>
            <threshold>6.5060639753937721e-003</threshold>
            <left_val>-0.1395372003316879</left_val>
            <right_val>0.3949795067310333</right_val></_></_>
        <_>
          <_>
            <feature>
              <rects>
                <_>
                  1 13 10 3 -1.</_>
                <_>
                  1 14 10 1 3.</_></rects>
              <tilted>0</tilted></feature>
            <threshold>6.8476540036499500e-003</threshold>
            <left_val>-0.1513175070285797</left_val>
            <right_val>0.3865990042686462</right_val></_></_>
        <_>
          <_>
            <feature>
              <rects>
                <_>
                  20 15 4 1 -1.</_>
                <_>
                  22 15 2 1 2.</_></rects>
              <tilted>0</tilted></feature>
            <threshold>-3.3411790354875848e-005</threshold>
            <left_val>0.1409302949905396</left_val>
            <right_val>-0.3389106988906860</right_val></_></_>
        <_>
          <_>
            <feature>
              <rects>
                <_>
                  4 12 10 6 -1.</_>
                <_>
                  9 12 5 6 2.</_></rects>
              <tilted>0</tilted></feature>
            <threshold>0.0770186036825180</threshold>
            <left_val>0.0422799512743950</left_val>
            <right_val>-0.9482008814811707</right_val></_></_>
        <_>
          <_>
            <feature>
              <rects>
                <_>
                  17 15 2 3 -1.</_>
                <_>
                  16 16 2 1 3.</_></rects>
              <tilted>1</tilted></feature>
            <threshold>-2.7225550729781389e-003</threshold>
            <left_val>-0.5693492293357849</left_val>
            <right_val>0.0661520436406136</right_val></_></_>
        <_>
          <_>
            <feature>
              <rects>
                <_>
                  6 20 4 2 -1.</_>
                <_>
                  6 20 2 1 2.</_>
                <_>
                  8 21 2 1 2.</_></rects>
              <tilted>0</tilted></feature>
            <threshold>1.2107939692214131e-003</threshold>
            <left_val>-0.1351207047700882</left_val>
            <right_val>0.3239193856716156</right_val></_></_>
        <_>
          <_>
            <feature>
              <rects>
                <_>
                  7 17 3 3 -1.</_>
                <_>
                  8 18 1 3 3.</_></rects>
              <tilted>1</tilted></feature>
            <threshold>-6.3321120105683804e-003</threshold>
            <left_val>0.4023407995700836</left_val>
            <right_val>-0.1190098002552986</right_val></_></_>
        <_>
          <_>
            <feature>
              <rects>
                <_>
                  6 9 4 14 -1.</_>
                <_>
                  6 9 2 7 2.</_>
                <_>
                  8 16 2 7 2.</_></rects>
              <tilted>0</tilted></feature>
            <threshold>0.0118527701124549</threshold>
            <left_val>0.0922963097691536</left_val>
            <right_val>-0.5964130759239197</right_val></_></_>
        <_>
          <_>
            <feature>
              <rects>
                <_>
                  18 13 2 1 -1.</_>
                <_>
                  19 13 1 1 2.</_></rects>
              <tilted>0</tilted></feature>
            <threshold>4.1607959428802133e-004</threshold>
            <left_val>0.0572364516556263</left_val>
            <right_val>-0.6847172975540161</right_val></_></_>
        <_>
          <_>
            <feature>
              <rects>
                <_>
                  10 6 2 3 -1.</_>
                <_>
                  9 7 2 1 3.</_></rects>
              <tilted>1</tilted></feature>
            <threshold>-5.5978619493544102e-003</threshold>
            <left_val>0.4355421066284180</left_val>
            <right_val>-0.1195676997303963</right_val></_></_>
        <_>
          <_>
            <feature>
              <rects>
                <_>
                  1 19 1 4 -1.</_>
                <_>
                  1 21 1 2 2.</_></rects>
              <tilted>0</tilted></feature>
            <threshold>-1.6045019729062915e-003</threshold>
            <left_val>-0.4241979122161865</left_val>
            <right_val>0.1137356013059616</right_val></_></_>
        <_>
          <_>
            <feature>
              <rects>
                <_>
                  1 19 2 4 -1.</_>
                <_>
                  1 21 2 2 2.</_></rects>
              <tilted>0</tilted></feature>
            <threshold>2.2063869982957840e-003</threshold>
            <left_val>0.1253551989793778</left_val>
            <right_val>-0.4633043110370636</right_val></_></_>
        <_>
          <_>
            <feature>
              <rects>
                <_>
                  12 9 2 9 -1.</_>
                <_>
                  12 12 2 3 3.</_></rects>
              <tilted>0</tilted></feature>
            <threshold>-6.6415569745004177e-004</threshold>
            <left_val>0.1916027963161469</left_val>
            <right_val>-0.2411167025566101</right_val></_></_>
        <_>
          <_>
            <feature>
              <rects>
                <_>
                  8 14 11 10 -1.</_>
                <_>
                  8 19 11 5 2.</_></rects>
              <tilted>0</tilted></feature>
            <threshold>-0.0744359418749809</threshold>
            <left_val>0.3084206879138947</left_val>
            <right_val>-0.1525173038244247</right_val></_></_></trees>
      <stage_threshold>-1.2139459848403931</stage_threshold>
      <parent>8</parent>
      <next>-1</next></_>
    <_>
      <trees>
        <_>
          <_>
            <feature>
              <rects>
                <_>
                  12 5 12 7 -1.</_>
                <_>
                  15 8 6 7 2.</_></rects>
              <tilted>1</tilted></feature>
            <threshold>0.1513876020908356</threshold>
            <left_val>-0.1321922987699509</left_val>
            <right_val>0.5058187842369080</right_val></_></_>
        <_>
          <_>
            <feature>
              <rects>
                <_>
                  23 5 1 15 -1.</_>
                <_>
                  23 10 1 5 3.</_></rects>
              <tilted>0</tilted></feature>
            <threshold>-4.4953129254281521e-003</threshold>
            <left_val>0.2300215959548950</left_val>
            <right_val>-0.2183566987514496</right_val></_></_>
        <_>
          <_>
            <feature>
              <rects>
                <_>
                  9 17 3 4 -1.</_>
                <_>
                  10 18 1 4 3.</_></rects>
              <tilted>1</tilted></feature>
            <threshold>0.0144007196649909</threshold>
            <left_val>-0.0894830226898193</left_val>
            <right_val>0.4825505018234253</right_val></_></_>
        <_>
          <_>
            <feature>
              <rects>
                <_>
                  12 17 3 4 -1.</_>
                <_>
                  13 18 1 4 3.</_></rects>
              <tilted>1</tilted></feature>
            <threshold>0.0195606891065836</threshold>
            <left_val>-0.0678917467594147</left_val>
            <right_val>0.6721339225769043</right_val></_></_>
        <_>
          <_>
            <feature>
              <rects>
                <_>
                  18 4 4 3 -1.</_>
                <_>
                  17 5 4 1 3.</_></rects>
              <tilted>1</tilted></feature>
            <threshold>7.4238390661776066e-003</threshold>
            <left_val>-0.1098084002733231</left_val>
            <right_val>0.3846741020679474</right_val></_></_>
        <_>
          <_>
            <feature>
              <rects>
                <_>
                  16 1 7 3 -1.</_>
                <_>
                  15 2 7 1 3.</_></rects>
              <tilted>1</tilted></feature>
            <threshold>-0.0190811306238174</threshold>
            <left_val>0.4688084125518799</left_val>
            <right_val>-0.1053847968578339</right_val></_></_>
        <_>
          <_>
            <feature>
              <rects>
                <_>
                  0 9 12 13 -1.</_>
                <_>
                  6 9 6 13 2.</_></rects>
              <tilted>0</tilted></feature>
            <threshold>-0.1054658964276314</threshold>
            <left_val>0.4314880073070526</left_val>
            <right_val>-0.1074424013495445</right_val></_></_>
        <_>
          <_>
            <feature>
              <rects>
                <_>
                  4 1 12 2 -1.</_>
                <_>
                  4 1 6 2 2.</_></rects>
              <tilted>1</tilted></feature>
            <threshold>-0.0470224991440773</threshold>
            <left_val>0.3536969125270844</left_val>
            <right_val>-0.1354019939899445</right_val></_></_>
        <_>
          <_>
            <feature>
              <rects>
                <_>
                  13 3 3 4 -1.</_>
                <_>
                  12 4 3 2 2.</_></rects>
              <tilted>1</tilted></feature>
            <threshold>8.7638534605503082e-003</threshold>
            <left_val>-0.1184428036212921</left_val>
            <right_val>0.3554050028324127</right_val></_></_>
        <_>
          <_>
            <feature>
              <rects>
                <_>
                  6 6 8 8 -1.</_>
                <_>
                  10 6 4 8 2.</_></rects>
              <tilted>0</tilted></feature>
            <threshold>0.0604515597224236</threshold>
            <left_val>0.0994599089026451</left_val>
            <right_val>-0.7233678102493286</right_val></_></_>
        <_>
          <_>
            <feature>
              <rects>
                <_>
                  17 9 1 3 -1.</_>
                <_>
                  17 10 1 1 3.</_></rects>
              <tilted>0</tilted></feature>
            <threshold>1.0372359538450837e-003</threshold>
            <left_val>0.0662244334816933</left_val>
            <right_val>-0.6527581810951233</right_val></_></_>
        <_>
          <_>
            <feature>
              <rects>
                <_>
                  17 9 1 3 -1.</_>
                <_>
                  17 10 1 1 3.</_></rects>
              <tilted>0</tilted></feature>
            <threshold>-3.6467780591920018e-004</threshold>
            <left_val>-0.4632413089275360</left_val>
            <right_val>0.0698841735720634</right_val></_></_>
        <_>
          <_>
            <feature>
              <rects>
                <_>
                  6 9 2 3 -1.</_>
                <_>
                  6 10 2 1 3.</_></rects>
              <tilted>0</tilted></feature>
            <threshold>2.1211439743638039e-003</threshold>
            <left_val>-0.1073791980743408</left_val>
            <right_val>0.3872052133083344</right_val></_></_>
        <_>
          <_>
            <feature>
              <rects>
                <_>
                  6 9 2 3 -1.</_>
                <_>
                  6 10 2 1 3.</_></rects>
              <tilted>0</tilted></feature>
            <threshold>-2.4784100241959095e-003</threshold>
            <left_val>0.4954642951488495</left_val>
            <right_val>-0.1470011025667191</right_val></_></_>
        <_>
          <_>
            <feature>
              <rects>
                <_>
                  11 8 1 6 -1.</_>
                <_>
                  11 8 1 3 2.</_></rects>
              <tilted>1</tilted></feature>
            <threshold>-6.5960790961980820e-003</threshold>
            <left_val>-0.5441895127296448</left_val>
            <right_val>0.0995809212327003</right_val></_></_>
        <_>
          <_>
            <feature>
              <rects>
                <_>
                  10 8 2 6 -1.</_>
                <_>
                  10 8 2 3 2.</_></rects>
              <tilted>1</tilted></feature>
            <threshold>0.0192840192466974</threshold>
            <left_val>0.0464170686900616</left_val>
            <right_val>-0.6477417945861816</right_val></_></_>
        <_>
          <_>
            <feature>
              <rects>
                <_>
                  9 19 2 2 -1.</_>
                <_>
                  9 19 1 1 2.</_>
                <_>
                  10 20 1 1 2.</_></rects>
              <tilted>0</tilted></feature>
            <threshold>-1.3865740038454533e-003</threshold>
            <left_val>0.4792278110980988</left_val>
            <right_val>-0.0946063026785851</right_val></_></_>
        <_>
          <_>
            <feature>
              <rects>
                <_>
                  9 19 2 2 -1.</_>
                <_>
                  9 19 1 1 2.</_>
                <_>
                  10 20 1 1 2.</_></rects>
              <tilted>0</tilted></feature>
            <threshold>7.0440268609672785e-004</threshold>
            <left_val>-0.1022337973117828</left_val>
            <right_val>0.4116294980049133</right_val></_></_>
        <_>
          <_>
            <feature>
              <rects>
                <_>
                  21 21 3 2 -1.</_>
                <_>
                  21 22 3 1 2.</_></rects>
              <tilted>0</tilted></feature>
